solver_type L2R_LR
nr_class 2
label 1 -1
nr_feature 54
bias -1
w
12.66629681826808 
0.01231729364808291 
-0.6730035925177936 
-2.091319352859425 
-0.6414618573473618 
-1.081146782923843 
-0.3573228223511758 
-5.292698948261958 
0.542500353306431 
0.4808740124064519 
-0.8389066958451804 
-1.360233158599165 
-0.5711786236138628 
4.60306349636122 
5.28947283665424 
4.060476415403666 
4.297611160513877 
1.759106788082947 
4.71524916177512 
-0.5847191473418138 
-3.342972294404321 
-1.118328140104789 
-0.2789810256170909 
-0.1792814934583303 
-1.048317068439714 
-2.025922125363028 
-1.263217132006198 
4.09569807064961 
0.4022583672633047 
-0.6376442720608004 
1.271112996683196 
-0.5821000565232221 
-0.5607800335441949 
-0.5852166601887047 
1.961553610421023 
-0.3181821777973014 
-0.4421927133317833 
-1.499934806931983 
-0.8697517176017624 
-1.871792245297275 
-2.988250822409483 
-2.457597965053967 
-1.294342776207417 
-1.178845472268349 
-1.42659036907277 
-1.796962501707671 
-1.575878299413619 
-2.651454506915017 
2.818696955360386 
-1.292204125104575 
1.681905915180758 
1.335260873457608 
1.717154005324528 
0.2986478098504882 
